<?xml version="1.0"?>
<opencv_storage>
<cascade>
  <stageType>BOOST</stageType>
  <featureType>HAAR</featureType>
  <height>20</height>
  <width>20</width>
  <stageParams>
    <boostType>GAB</boostType>
    <minHitRate>9.9900001287460327e-01</minHitRate>
    <maxFalseAlarm>5.0000000745058060e-02</maxFalseAlarm>
    <weightTrimRate>9.4999999999999996e-01</weightTrimRate>
    <maxDepth>1</maxDepth>
    <maxWeakCount>100</maxWeakCount></stageParams>
  <featureParams>
    <maxCatCount>0</maxCatCount>
    <featSize>1</featSize>
    <mode>ALL</mode></featureParams>
  <stageNum>3</stageNum>
  <stages>
    <!-- stage 0 -->
    <_>
      <maxWeakCount>5</maxWeakCount>
      <stageThreshold>-1.8367989361286163e-01</stageThreshold>
      <weakClassifiers>
        <_>
          <internalNodes>
            0 -1 5 4.3591177091002464e-03</internalNodes>
          <leafValues>
            -6.1028194427490234e-01 9.2695212364196777e-01</leafValues></_>
        <_>
          <internalNodes>
            0 -1 9 2.7106557972729206e-03</internalNodes>
          <leafValues>
            -5.5888199806213379e-01 8.8329488039016724e-01</leafValues></_>
        <_>
          <internalNodes>
            0 -1 0 4.2842455208301544e-02</internalNodes>
          <leafValues>
            -9.7591680288314819e-01 5.4900932312011719e-01</leafValues></_>
        <_>
          <internalNodes>
            0 -1 13 -2.4090491235256195e-02</internalNodes>
          <leafValues>
            9.8135656118392944e-01 -4.6770352125167847e-01</leafValues></_>
        <_>
          <internalNodes>
            0 -1 6 -9.4312243163585663e-03</internalNodes>
          <leafValues>
            9.8692744970321655e-01 -5.4245251417160034e-01</leafValues></_></weakClassifiers></_>
    <!-- stage 1 -->
    <_>
      <maxWeakCount>8</maxWeakCount>
      <stageThreshold>-1.1560893058776855e+00</stageThreshold>
      <weakClassifiers>
        <_>
          <internalNodes>
            0 -1 11 -2.3554689250886440e-03</internalNodes>
          <leafValues>
            7.9138320684432983e-01 -6.2432914972305298e-01</leafValues></_>
        <_>
          <internalNodes>
            0 -1 3 2.2948667407035828e-02</internalNodes>
          <leafValues>
            5.5730396509170532e-01 -8.9735794067382812e-01</leafValues></_>
        <_>
          <internalNodes>
            0 -1 10 -2.6166278868913651e-02</internalNodes>
          <leafValues>
            9.8328268527984619e-01 -5.5027031898498535e-01</leafValues></_>
        <_>
          <internalNodes>
            0 -1 14 -6.2486329115927219e-03</internalNodes>
          <leafValues>
            9.3589419126510620e-01 -4.5754408836364746e-01</leafValues></_>
        <_>
          <internalNodes>
            0 -1 17 -3.7800757127115503e-05</internalNodes>
          <leafValues>
            -9.9026298522949219e-01 5.0101858377456665e-01</leafValues></_>
        <_>
          <internalNodes>
            0 -1 1 -7.8391879796981812e-03</internalNodes>
          <leafValues>
            3.9776945114135742e-01 -8.8848274946212769e-01</leafValues></_>
        <_>
          <internalNodes>
            0 -1 8 4.9461377784609795e-03</internalNodes>
          <leafValues>
            -4.5117720961570740e-01 8.6607974767684937e-01</leafValues></_>
        <_>
          <internalNodes>
            0 -1 7 -1.2490019202232361e-02</internalNodes>
          <leafValues>
            9.6155971288681030e-01 -6.3875645399093628e-01</leafValues></_></weakClassifiers></_>
    <!-- stage 2 -->
    <_>
      <maxWeakCount>6</maxWeakCount>
      <stageThreshold>-3.5052445530891418e-01</stageThreshold>
      <weakClassifiers>
        <_>
          <internalNodes>
            0 -1 2 2.3728188127279282e-02</internalNodes>
          <leafValues>
            4.9534162878990173e-01 -8.9606744050979614e-01</leafValues></_>
        <_>
          <internalNodes>
            0 -1 12 3.1048734672367573e-03</internalNodes>
          <leafValues>
            -6.0957890748977661e-01 7.0310890674591064e-01</leafValues></_>
        <_>
          <internalNodes>
            0 -1 4 -2.6296291500329971e-02</internalNodes>
          <leafValues>
            9.0834045410156250e-01 -5.0278830528259277e-01</leafValues></_>
        <_>
          <internalNodes>
            0 -1 16 -6.0903290432179347e-05</internalNodes>
          <leafValues>
            -9.2035430669784546e-01 5.1744526624679565e-01</leafValues></_>
        <_>
          <internalNodes>
            0 -1 16 2.0428846255526878e-05</internalNodes>
          <leafValues>
            4.2455634474754333e-01 -1.</leafValues></_>
        <_>
          <internalNodes>
            0 -1 15 -5.3326420485973358e-02</internalNodes>
          <leafValues>
            1. -5.9677928686141968e-01</leafValues></_></weakClassifiers></_></stages>
  <features>
    <_>
      <rects>
        <_>
          0 0 20 20 -1.</_>
        <_>
          5 0 10 20 2.</_></rects>
      <tilted>0</tilted></_>
    <_>
      <rects>
        <_>
          0 14 8 6 -1.</_>
        <_>
          0 17 8 3 2.</_></rects>
      <tilted>0</tilted></_>
    <_>
      <rects>
        <_>
          2 3 12 8 -1.</_>
        <_>
          8 3 6 8 2.</_></rects>
      <tilted>0</tilted></_>
    <_>
      <rects>
        <_>
          2 8 16 7 -1.</_>
        <_>
          6 8 8 7 2.</_></rects>
      <tilted>0</tilted></_>
    <_>
      <rects>
        <_>
          5 10 3 3 -1.</_>
        <_>
          6 11 1 1 9.</_></rects>
      <tilted>0</tilted></_>
    <_>
      <rects>
        <_>
          7 6 3 1 -1.</_>
        <_>
          8 6 1 1 3.</_></rects>
      <tilted>0</tilted></_>
    <_>
      <rects>
        <_>
          8 13 3 3 -1.</_>
        <_>
          9 13 1 3 3.</_></rects>
      <tilted>0</tilted></_>
    <_>
      <rects>
        <_>
          9 5 3 2 -1.</_>
        <_>
          10 5 1 2 3.</_></rects>
      <tilted>0</tilted></_>
    <_>
      <rects>
        <_>
          9 7 3 1 -1.</_>
        <_>
          10 7 1 1 3.</_></rects>
      <tilted>0</tilted></_>
    <_>
      <rects>
        <_>
          9 10 1 2 -1.</_>
        <_>
          9 11 1 1 2.</_></rects>
      <tilted>0</tilted></_>
    <_>
      <rects>
        <_>
          9 12 3 3 -1.</_>
        <_>
          10 13 1 1 9.</_></rects>
      <tilted>0</tilted></_>
    <_>
      <rects>
        <_>
          10 8 1 2 -1.</_>
        <_>
          10 9 1 1 2.</_></rects>
      <tilted>0</tilted></_>
    <_>
      <rects>
        <_>
          10 10 1 2 -1.</_>
        <_>
          10 11 1 1 2.</_></rects>
      <tilted>0</tilted></_>
    <_>
      <rects>
        <_>
          12 7 3 3 -1.</_>
        <_>
          13 8 1 1 9.</_></rects>
      <tilted>0</tilted></_>
    <_>
      <rects>
        <_>
          14 10 1 3 -1.</_>
        <_>
          14 11 1 1 3.</_></rects>
      <tilted>0</tilted></_>
    <_>
      <rects>
        <_>
          15 3 3 13 -1.</_>
        <_>
          16 4 1 13 3.</_></rects>
      <tilted>1</tilted></_>
    <_>
      <rects>
        <_>
          19 0 1 3 -1.</_>
        <_>
          19 1 1 1 3.</_></rects>
      <tilted>0</tilted></_>
    <_>
      <rects>
        <_>
          19 0 1 6 -1.</_>
        <_>
          19 3 1 3 2.</_></rects>
      <tilted>0</tilted></_></features></cascade>
</opencv_storage>
