<?xml version="1.0"?>
<opencv_storage>
<cascade>
  <stageType>BOOST</stageType>
  <featureType>HAAR</featureType>
  <height>20</height>
  <width>20</width>
  <stageParams>
    <boostType>GAB</boostType>
    <minHitRate>9.9900001287460327e-01</minHitRate>
    <maxFalseAlarm>4.5000001788139343e-02</maxFalseAlarm>
    <weightTrimRate>9.4999999999999996e-01</weightTrimRate>
    <maxDepth>1</maxDepth>
    <maxWeakCount>100</maxWeakCount></stageParams>
  <featureParams>
    <maxCatCount>0</maxCatCount>
    <featSize>1</featSize>
    <mode>ALL</mode></featureParams>
  <stageNum>4</stageNum>
  <stages>
    <!-- stage 0 -->
    <_>
      <maxWeakCount>5</maxWeakCount>
      <stageThreshold>-3.9948037266731262e-01</stageThreshold>
      <weakClassifiers>
        <_>
          <internalNodes>
            0 -1 9 3.4133563749492168e-03</internalNodes>
          <leafValues>
            -7.4014335870742798e-01 8.4895831346511841e-01</leafValues></_>
        <_>
          <internalNodes>
            0 -1 4 3.8557248190045357e-03</internalNodes>
          <leafValues>
            -5.7728755474090576e-01 8.8989353179931641e-01</leafValues></_>
        <_>
          <internalNodes>
            0 -1 2 -7.4699465185403824e-03</internalNodes>
          <leafValues>
            4.9229902029037476e-01 -9.1668683290481567e-01</leafValues></_>
        <_>
          <internalNodes>
            0 -1 11 3.4778192639350891e-03</internalNodes>
          <leafValues>
            -4.4830125570297241e-01 9.6292906999588013e-01</leafValues></_>
        <_>
          <internalNodes>
            0 -1 5 -4.2965393513441086e-03</internalNodes>
          <leafValues>
            9.8540329933166504e-01 -5.3727757930755615e-01</leafValues></_></weakClassifiers></_>
    <!-- stage 1 -->
    <_>
      <maxWeakCount>7</maxWeakCount>
      <stageThreshold>-1.4015786349773407e-01</stageThreshold>
      <weakClassifiers>
        <_>
          <internalNodes>
            0 -1 10 -6.1621577478945255e-03</internalNodes>
          <leafValues>
            8.9644014835357666e-01 -6.5239292383193970e-01</leafValues></_>
        <_>
          <internalNodes>
            0 -1 7 -6.7087118513882160e-03</internalNodes>
          <leafValues>
            8.9852565526962280e-01 -5.3312569856643677e-01</leafValues></_>
        <_>
          <internalNodes>
            0 -1 13 2.9675255063921213e-05</internalNodes>
          <leafValues>
            4.5800271630287170e-01 -1.</leafValues></_>
        <_>
          <internalNodes>
            0 -1 12 -6.3813314773142338e-03</internalNodes>
          <leafValues>
            9.3273949623107910e-01 -4.9928605556488037e-01</leafValues></_>
        <_>
          <internalNodes>
            0 -1 14 -1.9140003132633865e-05</internalNodes>
          <leafValues>
            -9.5245206356048584e-01 4.9086633324623108e-01</leafValues></_>
        <_>
          <internalNodes>
            0 -1 14 1.8237167751067318e-05</internalNodes>
          <leafValues>
            3.3111765980720520e-01 -1.</leafValues></_>
        <_>
          <internalNodes>
            0 -1 0 -2.2575435650651343e-05</internalNodes>
          <leafValues>
            -9.7158175706863403e-01 2.7632719278335571e-01</leafValues></_></weakClassifiers></_>
    <!-- stage 2 -->
    <_>
      <maxWeakCount>5</maxWeakCount>
      <stageThreshold>-2.7641308307647705e-01</stageThreshold>
      <weakClassifiers>
        <_>
          <internalNodes>
            0 -1 8 1.9722674041986465e-02</internalNodes>
          <leafValues>
            -7.1792536973953247e-01 7.2069823741912842e-01</leafValues></_>
        <_>
          <internalNodes>
            0 -1 0 3.6479807022260502e-05</internalNodes>
          <leafValues>
            5.0998026132583618e-01 -1.</leafValues></_>
        <_>
          <internalNodes>
            0 -1 11 -4.7300234436988831e-03</internalNodes>
          <leafValues>
            9.5083898305892944e-01 -5.2753442525863647e-01</leafValues></_>
        <_>
          <internalNodes>
            0 -1 5 4.0083015337586403e-03</internalNodes>
          <leafValues>
            -4.3372064828872681e-01 9.5279514789581299e-01</leafValues></_>
        <_>
          <internalNodes>
            0 -1 3 4.6354322694242001e-03</internalNodes>
          <leafValues>
            -3.8945609331130981e-01 8.9278709888458252e-01</leafValues></_></weakClassifiers></_>
    <!-- stage 3 -->
    <_>
      <maxWeakCount>3</maxWeakCount>
      <stageThreshold>5.7167753577232361e-02</stageThreshold>
      <weakClassifiers>
        <_>
          <internalNodes>
            0 -1 6 -2.8839014470577240e-02</internalNodes>
          <leafValues>
            -9.6966159343719482e-01 5.1477450132369995e-01</leafValues></_>
        <_>
          <internalNodes>
            0 -1 1 -2.8332398505881429e-04</internalNodes>
          <leafValues>
            -9.5741432905197144e-01 6.8291664123535156e-01</leafValues></_>
        <_>
          <internalNodes>
            0 -1 15 4.8989753850037232e-05</internalNodes>
          <leafValues>
            4.9980756640434265e-01 -1.</leafValues></_></weakClassifiers></_></stages>
  <features>
    <_>
      <rects>
        <_>
          0 0 1 3 -1.</_>
        <_>
          0 1 1 1 3.</_></rects>
      <tilted>0</tilted></_>
    <_>
      <rects>
        <_>
          0 18 2 2 -1.</_>
        <_>
          0 19 2 1 2.</_></rects>
      <tilted>0</tilted></_>
    <_>
      <rects>
        <_>
          2 0 6 2 -1.</_>
        <_>
          2 0 3 2 2.</_></rects>
      <tilted>1</tilted></_>
    <_>
      <rects>
        <_>
          6 8 3 1 -1.</_>
        <_>
          7 8 1 1 3.</_></rects>
      <tilted>0</tilted></_>
    <_>
      <rects>
        <_>
          7 6 3 1 -1.</_>
        <_>
          8 6 1 1 3.</_></rects>
      <tilted>0</tilted></_>
    <_>
      <rects>
        <_>
          7 7 2 2 -1.</_>
        <_>
          7 7 1 1 2.</_>
        <_>
          8 8 1 1 2.</_></rects>
      <tilted>0</tilted></_>
    <_>
      <rects>
        <_>
          8 0 10 14 -1.</_>
        <_>
          8 0 5 7 2.</_>
        <_>
          13 7 5 7 2.</_></rects>
      <tilted>0</tilted></_>
    <_>
      <rects>
        <_>
          9 6 3 1 -1.</_>
        <_>
          10 6 1 1 3.</_></rects>
      <tilted>0</tilted></_>
    <_>
      <rects>
        <_>
          9 7 3 3 -1.</_>
        <_>
          10 8 1 1 9.</_></rects>
      <tilted>0</tilted></_>
    <_>
      <rects>
        <_>
          9 10 1 2 -1.</_>
        <_>
          9 11 1 1 2.</_></rects>
      <tilted>0</tilted></_>
    <_>
      <rects>
        <_>
          9 13 3 1 -1.</_>
        <_>
          10 13 1 1 3.</_></rects>
      <tilted>0</tilted></_>
    <_>
      <rects>
        <_>
          11 11 2 2 -1.</_>
        <_>
          11 11 1 1 2.</_>
        <_>
          12 12 1 1 2.</_></rects>
      <tilted>0</tilted></_>
    <_>
      <rects>
        <_>
          14 7 1 3 -1.</_>
        <_>
          14 8 1 1 3.</_></rects>
      <tilted>0</tilted></_>
    <_>
      <rects>
        <_>
          16 0 4 2 -1.</_>
        <_>
          18 0 2 2 2.</_></rects>
      <tilted>0</tilted></_>
    <_>
      <rects>
        <_>
          17 0 2 1 -1.</_>
        <_>
          18 0 1 1 2.</_></rects>
      <tilted>0</tilted></_>
    <_>
      <rects>
        <_>
          19 17 1 2 -1.</_>
        <_>
          19 18 1 1 2.</_></rects>
      <tilted>0</tilted></_></features></cascade>
</opencv_storage>
