<?xml version="1.0"?>
<opencv_storage>
<stage1>
  <maxWeakCount>5</maxWeakCount>
  <stageThreshold>-4.5806816220283508e-01</stageThreshold>
  <weakClassifiers>
    <_>
      <internalNodes>
        0 -1 84717 -1.2806558981537819e-02</internalNodes>
      <leafValues>
        8.5863876342773438e-01 -7.4060821533203125e-01</leafValues></_>
    <_>
      <internalNodes>
        0 -1 86004 -2.4434059858322144e-02</internalNodes>
      <leafValues>
        9.2401111125946045e-01 -6.6225206851959229e-01</leafValues></_>
    <_>
      <internalNodes>
        0 -1 43354 -2.1821798756718636e-02</internalNodes>
      <leafValues>
        9.2903363704681396e-01 -4.9117544293403625e-01</leafValues></_>
    <_>
      <internalNodes>
        0 -1 961 1.9738372415304184e-02</internalNodes>
      <leafValues>
        -9.6665126085281372e-01 5.3294360637664795e-01</leafValues></_>
    <_>
      <internalNodes>
        0 -1 76306 -1.7759732902050018e-02</internalNodes>
      <leafValues>
        9.7726362943649292e-01 -5.1718515157699585e-01</leafValues></_></weakClassifiers></stage1>
</opencv_storage>
