<?xml version="1.0"?>
<opencv_storage>
<stage0>
  <maxWeakCount>5</maxWeakCount>
  <stageThreshold>-3.9948037266731262e-01</stageThreshold>
  <weakClassifiers>
    <_>
      <internalNodes>
        0 -1 85394 3.4133563749492168e-03</internalNodes>
      <leafValues>
        -7.4014335870742798e-01 8.4895831346511841e-01</leafValues></_>
    <_>
      <internalNodes>
        0 -1 68325 3.8557248190045357e-03</internalNodes>
      <leafValues>
        -5.7728755474090576e-01 8.8989353179931641e-01</leafValues></_>
    <_>
      <internalNodes>
        0 -1 19583 -7.4699465185403824e-03</internalNodes>
      <leafValues>
        4.9229902029037476e-01 -9.1668683290481567e-01</leafValues></_>
    <_>
      <internalNodes>
        0 -1 98823 3.4778192639350891e-03</internalNodes>
      <leafValues>
        -4.4830125570297241e-01 9.6292906999588013e-01</leafValues></_>
    <_>
      <internalNodes>
        0 -1 68879 -4.2965393513441086e-03</internalNodes>
      <leafValues>
        9.8540329933166504e-01 -5.3727757930755615e-01</leafValues></_></weakClassifiers></stage0>
</opencv_storage>
