<?xml version="1.0"?>
<opencv_storage>
<stage1>
  <maxWeakCount>8</maxWeakCount>
  <stageThreshold>-5.4378336668014526e-01</stageThreshold>
  <weakClassifiers>
    <_>
      <internalNodes>
        0 -1 92215 3.0849711038172245e-03</internalNodes>
      <leafValues>
        -5.9544658660888672e-01 7.9254078865051270e-01</leafValues></_>
    <_>
      <internalNodes>
        0 -1 108502 -6.0989940539002419e-03</internalNodes>
      <leafValues>
        9.6083825826644897e-01 -5.2429819107055664e-01</leafValues></_>
    <_>
      <internalNodes>
        0 -1 9240 -7.3291030712425709e-03</internalNodes>
      <leafValues>
        5.2115112543106079e-01 -9.2650169134140015e-01</leafValues></_>
    <_>
      <internalNodes>
        0 -1 102964 4.6349004842340946e-03</internalNodes>
      <leafValues>
        -4.5957022905349731e-01 9.7296398878097534e-01</leafValues></_>
    <_>
      <internalNodes>
        0 -1 86430 -5.6982310488820076e-03</internalNodes>
      <leafValues>
        9.5755445957183838e-01 -4.8030549287796021e-01</leafValues></_>
    <_>
      <internalNodes>
        0 -1 772 6.5359016880393028e-03</internalNodes>
      <leafValues>
        -9.3027269840240479e-01 5.1986688375473022e-01</leafValues></_>
    <_>
      <internalNodes>
        0 -1 82625 -1.8093718215823174e-02</internalNodes>
      <leafValues>
        9.6041566133499146e-01 -4.1896006464958191e-01</leafValues></_>
    <_>
      <internalNodes>
        0 -1 78937 1.1718582361936569e-02</internalNodes>
      <leafValues>
        -4.8559656739234924e-01 9.7824347019195557e-01</leafValues></_></weakClassifiers></stage1>
</opencv_storage>
