<?xml version="1.0"?>
<opencv_storage>
<stage0>
  <maxWeakCount>5</maxWeakCount>
  <stageThreshold>-1.8367989361286163e-01</stageThreshold>
  <weakClassifiers>
    <_>
      <internalNodes>
        0 -1 68325 4.3591177091002464e-03</internalNodes>
      <leafValues>
        -6.1028194427490234e-01 9.2695212364196777e-01</leafValues></_>
    <_>
      <internalNodes>
        0 -1 85394 2.7106557972729206e-03</internalNodes>
      <leafValues>
        -5.5888199806213379e-01 8.8329488039016724e-01</leafValues></_>
    <_>
      <internalNodes>
        0 -1 484 4.2842455208301544e-02</internalNodes>
      <leafValues>
        -9.7591680288314819e-01 5.4900932312011719e-01</leafValues></_>
    <_>
      <internalNodes>
        0 -1 103371 -2.4090491235256195e-02</internalNodes>
      <leafValues>
        9.8135656118392944e-01 -4.6770352125167847e-01</leafValues></_>
    <_>
      <internalNodes>
        0 -1 79227 -9.4312243163585663e-03</internalNodes>
      <leafValues>
        9.8692744970321655e-01 -5.4245251417160034e-01</leafValues></_></weakClassifiers></stage0>
</opencv_storage>
