<?xml version="1.0"?>
<opencv_storage>
<stage0>
  <maxWeakCount>7</maxWeakCount>
  <stageThreshold>-8.2129001617431641e-01</stageThreshold>
  <weakClassifiers>
    <_>
      <internalNodes>
        0 -1 71481 4.0779132395982742e-03</internalNodes>
      <leafValues>
        -7.8082191944122314e-01 8.7654322385787964e-01</leafValues></_>
    <_>
      <internalNodes>
        0 -1 68325 4.3468689545989037e-03</internalNodes>
      <leafValues>
        -6.3553583621978760e-01 9.0654456615447998e-01</leafValues></_>
    <_>
      <internalNodes>
        0 -1 69940 -8.7101850658655167e-03</internalNodes>
      <leafValues>
        6.1899554729461670e-01 -8.7912118434906006e-01</leafValues></_>
    <_>
      <internalNodes>
        0 -1 115249 3.8037978112697601e-02</internalNodes>
      <leafValues>
        -8.5745906829833984e-01 4.7466826438903809e-01</leafValues></_>
    <_>
      <internalNodes>
        0 -1 9444 1.7585445195436478e-02</internalNodes>
      <leafValues>
        -9.0785330533981323e-01 4.5501464605331421e-01</leafValues></_>
    <_>
      <internalNodes>
        0 -1 62206 -5.3128390572965145e-03</internalNodes>
      <leafValues>
        9.2667174339294434e-01 -5.4130119085311890e-01</leafValues></_>
    <_>
      <internalNodes>
        0 -1 76899 -1.7678497359156609e-02</internalNodes>
      <leafValues>
        9.7517210245132446e-01 -5.1741462945938110e-01</leafValues></_></weakClassifiers></stage0>
</opencv_storage>
