<?xml version="1.0"?>
<opencv_storage>
<stage2>
  <maxWeakCount>5</maxWeakCount>
  <stageThreshold>-2.1934501826763153e-01</stageThreshold>
  <weakClassifiers>
    <_>
      <internalNodes>
        0 -1 96991 -6.1136637814342976e-03</internalNodes>
      <leafValues>
        8.1927710771560669e-01 -8.1734317541122437e-01</leafValues></_>
    <_>
      <internalNodes>
        0 -1 99280 -6.4877551048994064e-03</internalNodes>
      <leafValues>
        8.5623544454574585e-01 -6.6525506973266602e-01</leafValues></_>
    <_>
      <internalNodes>
        0 -1 22546 1.7067659646272659e-02</internalNodes>
      <leafValues>
        5.1053243875503540e-01 -9.4159710407257080e-01</leafValues></_>
    <_>
      <internalNodes>
        0 -1 50185 1.9450832158327103e-02</internalNodes>
      <leafValues>
        3.8957962393760681e-01 -9.8698103427886963e-01</leafValues></_>
    <_>
      <internalNodes>
        0 -1 973 2.3897353094071150e-03</internalNodes>
      <leafValues>
        -9.8905289173126221e-01 3.6314117908477783e-01</leafValues></_></weakClassifiers></stage2>
</opencv_storage>
