<?xml version="1.0"?>
<opencv_storage>
<cascade>
  <stageType>BOOST</stageType>
  <featureType>HAAR</featureType>
  <height>20</height>
  <width>20</width>
  <stageParams>
    <boostType>GAB</boostType>
    <minHitRate>9.9900001287460327e-01</minHitRate>
    <maxFalseAlarm>5.0000000745058060e-02</maxFalseAlarm>
    <weightTrimRate>9.4999999999999996e-01</weightTrimRate>
    <maxDepth>1</maxDepth>
    <maxWeakCount>100</maxWeakCount></stageParams>
  <featureParams>
    <maxCatCount>0</maxCatCount>
    <featSize>1</featSize>
    <mode>ALL</mode></featureParams>
  <stageNum>3</stageNum>
  <stages>
    <!-- stage 0 -->
    <_>
      <maxWeakCount>7</maxWeakCount>
      <stageThreshold>-4.7732621431350708e-01</stageThreshold>
      <weakClassifiers>
        <_>
          <internalNodes>
            0 -1 9 1.4490241184830666e-02</internalNodes>
          <leafValues>
            -6.6519045829772949e-01 8.6222732067108154e-01</leafValues></_>
        <_>
          <internalNodes>
            0 -1 4 3.8278386928141117e-03</internalNodes>
          <leafValues>
            -5.5231469869613647e-01 9.4890195131301880e-01</leafValues></_>
        <_>
          <internalNodes>
            0 -1 2 2.0518662407994270e-02</internalNodes>
          <leafValues>
            -8.6119520664215088e-01 6.0863071680068970e-01</leafValues></_>
        <_>
          <internalNodes>
            0 -1 7 -1.2287434190511703e-02</internalNodes>
          <leafValues>
            5.8251094818115234e-01 -7.7295303344726562e-01</leafValues></_>
        <_>
          <internalNodes>
            0 -1 11 -2.4650678038597107e-02</internalNodes>
          <leafValues>
            9.8619759082794189e-01 -5.5420100688934326e-01</leafValues></_>
        <_>
          <internalNodes>
            0 -1 8 4.8944652080535889e-03</internalNodes>
          <leafValues>
            -5.1169478893280029e-01 9.5588743686676025e-01</leafValues></_>
        <_>
          <internalNodes>
            0 -1 16 4.2109149944735691e-05</internalNodes>
          <leafValues>
            6.1493307352066040e-01 -9.9880594015121460e-01</leafValues></_></weakClassifiers></_>
    <!-- stage 1 -->
    <_>
      <maxWeakCount>5</maxWeakCount>
      <stageThreshold>-1.1484175920486450e-01</stageThreshold>
      <weakClassifiers>
        <_>
          <internalNodes>
            0 -1 12 4.6526291407644749e-03</internalNodes>
          <leafValues>
            -5.6809026002883911e-01 9.2885375022888184e-01</leafValues></_>
        <_>
          <internalNodes>
            0 -1 6 4.6473145484924316e-03</internalNodes>
          <leafValues>
            -4.4353318214416504e-01 9.1353726387023926e-01</leafValues></_>
        <_>
          <internalNodes>
            0 -1 18 -2.0479797967709601e-05</internalNodes>
          <leafValues>
            -9.6373599767684937e-01 5.3782951831817627e-01</leafValues></_>
        <_>
          <internalNodes>
            0 -1 13 3.9625726640224457e-03</internalNodes>
          <leafValues>
            -4.8192885518074036e-01 9.2828363180160522e-01</leafValues></_>
        <_>
          <internalNodes>
            0 -1 14 -4.4348011724650860e-03</internalNodes>
          <leafValues>
            9.8537606000900269e-01 -4.9547803401947021e-01</leafValues></_></weakClassifiers></_>
    <!-- stage 2 -->
    <_>
      <maxWeakCount>8</maxWeakCount>
      <stageThreshold>-8.7487947940826416e-01</stageThreshold>
      <weakClassifiers>
        <_>
          <internalNodes>
            0 -1 18 1.8870359781431034e-05</internalNodes>
          <leafValues>
            5.6128025054931641e-01 -1.</leafValues></_>
        <_>
          <internalNodes>
            0 -1 15 1.2067131698131561e-02</internalNodes>
          <leafValues>
            -9.3208456039428711e-01 4.5718720555305481e-01</leafValues></_>
        <_>
          <internalNodes>
            0 -1 10 -1.1103215627372265e-02</internalNodes>
          <leafValues>
            7.8173446655273438e-01 -6.1670637130737305e-01</leafValues></_>
        <_>
          <internalNodes>
            0 -1 3 2.0010424777865410e-02</internalNodes>
          <leafValues>
            5.1552569866180420e-01 -9.3836897611618042e-01</leafValues></_>
        <_>
          <internalNodes>
            0 -1 5 -6.1987470835447311e-03</internalNodes>
          <leafValues>
            9.2380422353744507e-01 -5.5968856811523438e-01</leafValues></_>
        <_>
          <internalNodes>
            0 -1 1 3.5296645015478134e-02</internalNodes>
          <leafValues>
            -9.0798038244247437e-01 4.8360082507133484e-01</leafValues></_>
        <_>
          <internalNodes>
            0 -1 17 -1.8989851698279381e-02</internalNodes>
          <leafValues>
            5.3257030248641968e-01 -6.8744164705276489e-01</leafValues></_>
        <_>
          <internalNodes>
            0 -1 0 1.8881652067648247e-05</internalNodes>
          <leafValues>
            3.6294427514076233e-01 -1.</leafValues></_></weakClassifiers></_></stages>
  <features>
    <_>
      <rects>
        <_>
          0 0 1 3 -1.</_>
        <_>
          0 1 1 1 3.</_></rects>
      <tilted>0</tilted></_>
    <_>
      <rects>
        <_>
          0 0 5 20 -1.</_>
        <_>
          0 5 5 10 2.</_></rects>
      <tilted>0</tilted></_>
    <_>
      <rects>
        <_>
          0 15 20 5 -1.</_>
        <_>
          5 15 10 5 2.</_></rects>
      <tilted>0</tilted></_>
    <_>
      <rects>
        <_>
          3 5 8 10 -1.</_>
        <_>
          7 5 4 10 2.</_></rects>
      <tilted>0</tilted></_>
    <_>
      <rects>
        <_>
          6 8 3 1 -1.</_>
        <_>
          7 8 1 1 3.</_></rects>
      <tilted>0</tilted></_>
    <_>
      <rects>
        <_>
          6 10 1 3 -1.</_>
        <_>
          6 11 1 1 3.</_></rects>
      <tilted>0</tilted></_>
    <_>
      <rects>
        <_>
          7 6 3 1 -1.</_>
        <_>
          8 6 1 1 3.</_></rects>
      <tilted>0</tilted></_>
    <_>
      <rects>
        <_>
          7 9 6 3 -1.</_>
        <_>
          9 10 2 1 9.</_></rects>
      <tilted>0</tilted></_>
    <_>
      <rects>
        <_>
          7 13 3 1 -1.</_>
        <_>
          8 13 1 1 3.</_></rects>
      <tilted>0</tilted></_>
    <_>
      <rects>
        <_>
          9 7 3 3 -1.</_>
        <_>
          10 8 1 1 9.</_></rects>
      <tilted>0</tilted></_>
    <_>
      <rects>
        <_>
          9 8 2 4 -1.</_>
        <_>
          9 9 2 2 2.</_></rects>
      <tilted>0</tilted></_>
    <_>
      <rects>
        <_>
          9 12 3 3 -1.</_>
        <_>
          10 13 1 1 9.</_></rects>
      <tilted>0</tilted></_>
    <_>
      <rects>
        <_>
          10 5 3 1 -1.</_>
        <_>
          11 5 1 1 3.</_></rects>
      <tilted>0</tilted></_>
    <_>
      <rects>
        <_>
          11 11 2 2 -1.</_>
        <_>
          11 11 1 1 2.</_>
        <_>
          12 12 1 1 2.</_></rects>
      <tilted>0</tilted></_>
    <_>
      <rects>
        <_>
          12 12 2 2 -1.</_>
        <_>
          12 12 1 1 2.</_>
        <_>
          13 13 1 1 2.</_></rects>
      <tilted>0</tilted></_>
    <_>
      <rects>
        <_>
          13 0 7 6 -1.</_>
        <_>
          13 3 7 3 2.</_></rects>
      <tilted>0</tilted></_>
    <_>
      <rects>
        <_>
          14 0 6 1 -1.</_>
        <_>
          17 0 3 1 2.</_></rects>
      <tilted>0</tilted></_>
    <_>
      <rects>
        <_>
          16 1 4 19 -1.</_>
        <_>
          18 1 2 19 2.</_></rects>
      <tilted>0</tilted></_>
    <_>
      <rects>
        <_>
          17 0 2 1 -1.</_>
        <_>
          18 0 1 1 2.</_></rects>
      <tilted>0</tilted></_></features></cascade>
</opencv_storage>
